digraph Tree {
node [shape=box, style="filled, rounded", color="black", fontname=helvetica] ;
edge [fontname=helvetica] ;
0 [label="X[5] <= 502.5\nentropy = 1.9921\nsamples = 2998\nvalue = [858, 638, 743, 759]\nclass = (180000, 300000]", fillcolor="#e581390b"] ;
1 [label="X[3] <= 452.0\nentropy = 1.89\nsamples = 1420\nvalue = [465, 220, 218, 517]\nclass = [35000, 180000]", fillcolor="#d739e50e"] ;
0 -> 1 [labeldistance=2.5, labelangle=45, headlabel="True"] ;
2 [label="X[0] <= 72.45\nentropy = 1.7083\nsamples = 670\nvalue = [222, 58, 78, 312]\nclass = [35000, 180000]", fillcolor="#d739e533"] ;
1 -> 2 ;
3 [label="X[16] <= -1.7409\nentropy = 1.4717\nsamples = 330\nvalue = [108, 13, 26, 183]\nclass = [35000, 180000]", fillcolor="#d739e556"] ;
2 -> 3 ;
4 [label="X[12] <= 302.5\nentropy = 0.2668\nsamples = 22\nvalue = [0, 1, 0, 21]\nclass = [35000, 180000]", fillcolor="#d739e5f3"] ;
3 -> 4 ;
5 [label="entropy = 0.0\nsamples = 21\nvalue = [0, 0, 0, 21]\nclass = [35000, 180000]", fillcolor="#d739e5ff"] ;
4 -> 5 ;
6 [label="entropy = 0.0\nsamples = 1\nvalue = [0, 1, 0, 0]\nclass = (300000, 370000]", fillcolor="#47e539ff"] ;
4 -> 6 ;
7 [label="X[14] <= -1.3263\nentropy = 1.5012\nsamples = 308\nvalue = [108, 12, 26, 162]\nclass = [35000, 180000]", fillcolor="#d739e545"] ;
3 -> 7 ;
8 [label="entropy = 1.5574\nsamples = 38\nvalue = [12, 0, 10, 16]\nclass = [35000, 180000]", fillcolor="#d739e527"] ;
7 -> 8 ;
9 [label="entropy = 1.4513\nsamples = 270\nvalue = [96, 12, 16, 146]\nclass = [35000, 180000]", fillcolor="#d739e549"] ;
7 -> 9 ;
10 [label="X[9] <= 126.5\nentropy = 1.8595\nsamples = 340\nvalue = [114, 45, 52, 129]\nclass = [35000, 180000]", fillcolor="#d739e511"] ;
2 -> 10 ;
11 [label="X[14] <= -2.0719\nentropy = 1.913\nsamples = 258\nvalue = [78, 37, 50, 93]\nclass = [35000, 180000]", fillcolor="#d739e515"] ;
10 -> 11 ;
12 [label="entropy = 0.8631\nsamples = 7\nvalue = [0, 5, 2, 0]\nclass = (300000, 370000]", fillcolor="#47e53999"] ;
11 -> 12 ;
13 [label="entropy = 1.8899\nsamples = 251\nvalue = [78, 32, 48, 93]\nclass = [35000, 180000]", fillcolor="#d739e516"] ;
11 -> 13 ;
14 [label="X[17] <= -1.3119\nentropy = 1.501\nsamples = 82\nvalue = [36, 8, 2, 36]\nclass = (180000, 300000]", fillcolor="#e5813900"] ;
10 -> 14 ;
15 [label="entropy = 1.1981\nsamples = 14\nvalue = [9, 4, 0, 1]\nclass = (180000, 300000]", fillcolor="#e5813980"] ;
14 -> 15 ;
16 [label="entropy = 1.4124\nsamples = 68\nvalue = [27, 4, 2, 35]\nclass = [35000, 180000]", fillcolor="#d739e532"] ;
14 -> 16 ;
17 [label="X[7] <= 450.0\nentropy = 1.9678\nsamples = 750\nvalue = [243, 162, 140, 205]\nclass = (180000, 300000]", fillcolor="#e5813912"] ;
1 -> 17 ;
18 [label="X[50] <= 0.5\nentropy = 1.8921\nsamples = 499\nvalue = [177, 96, 63, 163]\nclass = (180000, 300000]", fillcolor="#e581390b"] ;
17 -> 18 ;
19 [label="X[2] <= 69.95\nentropy = 1.8608\nsamples = 468\nvalue = [171, 94, 48, 155]\nclass = (180000, 300000]", fillcolor="#e581390d"] ;
18 -> 19 ;
20 [label="entropy = 1.7907\nsamples = 234\nvalue = [74, 33, 25, 102]\nclass = [35000, 180000]", fillcolor="#d739e52d"] ;
19 -> 20 ;
21 [label="entropy = 1.8465\nsamples = 234\nvalue = [97, 61, 23, 53]\nclass = (180000, 300000]", fillcolor="#e5813935"] ;
19 -> 21 ;
22 [label="X[7] <= 400.0\nentropy = 1.7247\nsamples = 31\nvalue = [6, 2, 15, 8]\nclass = (370000, 4000000]", fillcolor="#399de54e"] ;
18 -> 22 ;
23 [label="entropy = 1.2516\nsamples = 18\nvalue = [1, 0, 9, 8]\nclass = (370000, 4000000]", fillcolor="#399de51a"] ;
22 -> 23 ;
24 [label="entropy = 1.4605\nsamples = 13\nvalue = [5, 2, 6, 0]\nclass = (370000, 4000000]", fillcolor="#399de520"] ;
22 -> 24 ;
25 [label="X[9] <= 299.5\nentropy = 1.968\nsamples = 251\nvalue = [66, 66, 77, 42]\nclass = (370000, 4000000]", fillcolor="#399de50f"] ;
17 -> 25 ;
26 [label="X[4] <= 442.5\nentropy = 1.8931\nsamples = 175\nvalue = [47, 33, 70, 25]\nclass = (370000, 4000000]", fillcolor="#399de52e"] ;
25 -> 26 ;
27 [label="entropy = 1.4761\nsamples = 31\nvalue = [13, 0, 13, 5]\nclass = (180000, 300000]", fillcolor="#e5813900"] ;
26 -> 27 ;
28 [label="entropy = 1.9036\nsamples = 144\nvalue = [34, 33, 57, 20]\nclass = (370000, 4000000]", fillcolor="#399de535"] ;
26 -> 28 ;
29 [label="X[2] <= 75.98\nentropy = 1.8227\nsamples = 76\nvalue = [19, 33, 7, 17]\nclass = (300000, 370000]", fillcolor="#47e5393f"] ;
25 -> 29 ;
30 [label="entropy = 1.5324\nsamples = 46\nvalue = [11, 21, 0, 14]\nclass = (300000, 370000]", fillcolor="#47e53938"] ;
29 -> 30 ;
31 [label="entropy = 1.8594\nsamples = 30\nvalue = [8, 12, 7, 3]\nclass = (300000, 370000]", fillcolor="#47e5392e"] ;
29 -> 31 ;
32 [label="X[0] <= 83.05\nentropy = 1.9502\nsamples = 1578\nvalue = [393, 418, 525, 242]\nclass = (370000, 4000000]", fillcolor="#399de518"] ;
0 -> 32 [labeldistance=2.5, labelangle=-45, headlabel="False"] ;
33 [label="X[9] <= 96.0\nentropy = 1.9919\nsamples = 871\nvalue = [248, 199, 232, 192]\nclass = (180000, 300000]", fillcolor="#e5813906"] ;
32 -> 33 ;
34 [label="X[7] <= 420.0\nentropy = 1.9768\nsamples = 688\nvalue = [183, 152, 217, 136]\nclass = (370000, 4000000]", fillcolor="#399de511"] ;
33 -> 34 ;
35 [label="X[17] <= 1.1546\nentropy = 1.9791\nsamples = 336\nvalue = [106, 71, 71, 88]\nclass = (180000, 300000]", fillcolor="#e5813913"] ;
34 -> 35 ;
36 [label="entropy = 1.9729\nsamples = 306\nvalue = [103, 67, 67, 69]\nclass = (180000, 300000]", fillcolor="#e5813925"] ;
35 -> 36 ;
37 [label="entropy = 1.5247\nsamples = 30\nvalue = [3, 4, 4, 19]\nclass = [35000, 180000]", fillcolor="#d739e593"] ;
35 -> 37 ;
38 [label="X[53] <= 0.5\nentropy = 1.886\nsamples = 352\nvalue = [77, 81, 146, 48]\nclass = (370000, 4000000]", fillcolor="#399de53d"] ;
34 -> 38 ;
39 [label="entropy = 1.793\nsamples = 260\nvalue = [48, 56, 126, 30]\nclass = (370000, 4000000]", fillcolor="#399de557"] ;
38 -> 39 ;
40 [label="entropy = 1.9749\nsamples = 92\nvalue = [29, 25, 20, 18]\nclass = (180000, 300000]", fillcolor="#e581390f"] ;
38 -> 40 ;
41 [label="X[7] <= 470.0\nentropy = 1.8527\nsamples = 183\nvalue = [65, 47, 15, 56]\nclass = (180000, 300000]", fillcolor="#e5813912"] ;
33 -> 41 ;
42 [label="X[15] <= 1.6277\nentropy = 1.4995\nsamples = 76\nvalue = [28, 14, 0, 34]\nclass = [35000, 180000]", fillcolor="#d739e520"] ;
41 -> 42 ;
43 [label="entropy = 1.4551\nsamples = 73\nvalue = [28, 11, 0, 34]\nclass = [35000, 180000]", fillcolor="#d739e522"] ;
42 -> 43 ;
44 [label="entropy = 0.0\nsamples = 3\nvalue = [0, 3, 0, 0]\nclass = (300000, 370000]", fillcolor="#47e539ff"] ;
42 -> 44 ;
45 [label="X[3] <= 530.0\nentropy = 1.9197\nsamples = 107\nvalue = [37, 33, 15, 22]\nclass = (180000, 300000]", fillcolor="#e581390e"] ;
41 -> 45 ;
46 [label="entropy = 1.8307\nsamples = 58\nvalue = [25, 8, 8, 17]\nclass = (180000, 300000]", fillcolor="#e5813932"] ;
45 -> 46 ;
47 [label="entropy = 1.7295\nsamples = 49\nvalue = [12, 25, 7, 5]\nclass = (300000, 370000]", fillcolor="#47e5395a"] ;
45 -> 47 ;
48 [label="X[54] <= 0.5\nentropy = 1.7894\nsamples = 707\nvalue = [145, 219, 293, 50]\nclass = (370000, 4000000]", fillcolor="#399de527"] ;
32 -> 48 ;
49 [label="X[53] <= 0.5\nentropy = 1.7333\nsamples = 515\nvalue = [97, 130, 251, 37]\nclass = (370000, 4000000]", fillcolor="#399de550"] ;
48 -> 49 ;
50 [label="X[50] <= 0.5\nentropy = 1.5654\nsamples = 296\nvalue = [40, 58, 177, 21]\nclass = (370000, 4000000]", fillcolor="#399de580"] ;
49 -> 50 ;
51 [label="entropy = 1.6429\nsamples = 250\nvalue = [33, 57, 139, 21]\nclass = (370000, 4000000]", fillcolor="#399de56c"] ;
50 -> 51 ;
52 [label="entropy = 0.7611\nsamples = 46\nvalue = [7, 1, 38, 0]\nclass = (370000, 4000000]", fillcolor="#399de5cb"] ;
50 -> 52 ;
53 [label="X[65] <= 0.5\nentropy = 1.8378\nsamples = 219\nvalue = [57, 72, 74, 16]\nclass = (370000, 4000000]", fillcolor="#399de503"] ;
49 -> 53 ;
54 [label="entropy = 1.3904\nsamples = 47\nvalue = [5, 9, 31, 2]\nclass = (370000, 4000000]", fillcolor="#399de594"] ;
53 -> 54 ;
55 [label="entropy = 1.8471\nsamples = 172\nvalue = [52, 63, 43, 14]\nclass = (300000, 370000]", fillcolor="#47e53917"] ;
53 -> 55 ;
56 [label="X[3] <= 567.5\nentropy = 1.7568\nsamples = 192\nvalue = [48, 89, 42, 13]\nclass = (300000, 370000]", fillcolor="#47e53949"] ;
48 -> 56 ;
57 [label="X[4] <= 477.5\nentropy = 1.8096\nsamples = 84\nvalue = [33, 30, 11, 10]\nclass = (180000, 300000]", fillcolor="#e581390e"] ;
56 -> 57 ;
58 [label="entropy = 1.2389\nsamples = 13\nvalue = [8, 0, 4, 1]\nclass = (180000, 300000]", fillcolor="#e5813971"] ;
57 -> 58 ;
59 [label="entropy = 1.7626\nsamples = 71\nvalue = [25, 30, 7, 9]\nclass = (300000, 370000]", fillcolor="#47e5391c"] ;
57 -> 59 ;
60 [label="X[29] <= 0.5\nentropy = 1.5325\nsamples = 108\nvalue = [15, 59, 31, 3]\nclass = (300000, 370000]", fillcolor="#47e5395d"] ;
56 -> 60 ;
61 [label="entropy = 1.5123\nsamples = 100\nvalue = [15, 58, 24, 3]\nclass = (300000, 370000]", fillcolor="#47e53972"] ;
60 -> 61 ;
62 [label="entropy = 0.5436\nsamples = 8\nvalue = [0, 1, 7, 0]\nclass = (370000, 4000000]", fillcolor="#399de5db"] ;
60 -> 62 ;
}